0.04025082234926379  0.8407404048232697  0.7626470093882438  0.6288541894911924  0.23883611839716762
0.8716421383586536  -0.1734039961904377  -0.7034021713177853  -0.7635561766239398  -0.22294603981488598
-0.6381939564581115  1.3063250596196578  -0.8636019106316878  -0.5688468510922596  -1.038399772158155
0.2798876888176673  -1.4369701134667214  0.06257212012926085  0.8797705579659723  0.2815423528512093
0.39631880175158035  -0.5654873418674978  -1.0950862701956627  -0.5095927860634107  0.8008038973359991
-0.9709162915745658  0.3920165113985248  0.24732864854544465  0.05139002002749017  0.5248941408650922
-0.20329595478966603  1.2374020975893552  -1.3497044882319058  0.19104058367690718  -0.7562237107588247
0.8611663834174068  0.07991082331398161  -0.12631872738383326  0.18502464523539763  0.07014845136955289
-0.8227782135438625  -0.38188340287262035  0.09699225928857355  -0.8462945435724628  -0.41264726953729275
-0.39213484989412384  -0.005941277940504776  0.4590395270210665  0.9853083509650522  -0.7379639932074089
0.9024263141927004  -0.3781424804414588  1.7541446152663245  -1.2246577099613596  -0.9599861192886663  0.668513526348204  1.6033351009588024  0.47817494379850545  -0.5539511989182039  1.2687010711709807  -0.39076375996125134
0.9985981381474851  -0.17473266199125953  -0.7100496079736884  1.031508098420523  0.13189153528088682  -0.38759575582057176  -1.925572952367197  0.5980766920845877  -0.6841838559325606  1.4307091923180417  1.0988608128157038
